################################################################################
# Neural network connection values (weights and biases).
################################################################################
# Col  Name       Description
################################################################################
# 1    connection Neural network connection value.
# 2    t          Connection type (a = weight, b = bias).
# 3    index      Index enumerating weights.
# 4    l_s        Starting point layer (end point layer for biases).
# 5    n_s        Starting point neuron in starting layer (end point neuron for biases).
# 6    l_e        End point layer.
# 7    n_e        End point neuron in end layer.
################################################################################
#                      1 2         3     4     5     6     7
#             connection t     index   l_s   n_s   l_e   n_e
############################################################
  6.0189369970915541E-01 a         1     0     1     1     1
 -6.0390784173836976E-01 a         2     0     1     1     2
 -1.1026134318877490E-01 a         3     0     1     1     3
 -9.0186180347091616E-01 a         4     0     1     1     4
 -1.3076248494356471E-01 a         5     0     1     1     5
 -5.2391054644274217E-02 a         6     0     2     1     1
 -5.8754234032843222E-01 a         7     0     2     1     2
 -8.7493694012988232E-01 a         8     0     2     1     3
  9.0511910351563696E-01 a         9     0     2     1     4
 -1.0818937091330978E-01 a        10     0     2     1     5
  0.0000000000000000E+00 b        11     1     1
  0.0000000000000000E+00 b        12     1     2
  0.0000000000000000E+00 b        13     1     3
  0.0000000000000000E+00 b        14     1     4
  0.0000000000000000E+00 b        15     1     5
  5.9363812869984500E-01 a        16     1     1     2     1
  7.3586022285571673E-01 a        17     1     1     2     2
  4.6663003982064755E-01 a        18     1     1     2     3
 -1.9820543479888481E-01 a        19     1     1     2     4
 -2.3843359944691563E-03 a        20     1     1     2     5
 -5.8473027311814896E-01 a        21     1     2     2     1
  7.3929344394848451E-01 a        22     1     2     2     2
 -1.7081743146541323E-01 a        23     1     2     2     3
 -7.0095210150194331E-01 a        24     1     2     2     4
 -1.6103254867387343E-01 a        25     1     2     2     5
 -2.5169178067290626E-01 a        26     1     3     2     1
 -1.6439124885161080E-01 a        27     1     3     2     2
 -3.9498923095534977E-01 a        28     1     3     2     3
  2.8525101506734934E-01 a        29     1     3     2     4
  5.6677506387758569E-01 a        30     1     3     2     5
  5.3591630468172280E-01 a        31     1     4     2     1
 -5.6181996858632788E-01 a        32     1     4     2     2
  4.6528540983896589E-02 a        33     1     4     2     3
 -2.5207298793547778E-01 a        34     1     4     2     4
 -6.6998077514927712E-01 a        35     1     4     2     5
 -6.6833716552946310E-01 a        36     1     5     2     1
  3.8895969030421745E-01 a        37     1     5     2     2
  1.7336730697200523E-01 a        38     1     5     2     3
 -3.9465400496685848E-01 a        39     1     5     2     4
  3.0142386109507141E-01 a        40     1     5     2     5
  0.0000000000000000E+00 b        41     2     1
  0.0000000000000000E+00 b        42     2     2
  0.0000000000000000E+00 b        43     2     3
  0.0000000000000000E+00 b        44     2     4
  0.0000000000000000E+00 b        45     2     5
  4.4644778778160482E-01 a        46     2     1     3     1
 -6.6669627089615657E-02 a        47     2     1     3     2
 -4.4009069502771886E-01 a        48     2     1     3     3
  7.6142386743375445E-01 a        49     2     1     3     4
 -2.6858799079608348E-01 a        50     2     1     3     5
  5.2290155606421385E-01 a        51     2     2     3     1
 -1.5661069051141491E-01 a        52     2     2     3     2
 -1.7998813323388327E-01 a        53     2     2     3     3
 -5.5341425818153012E-01 a        54     2     2     3     4
  6.3189308609741068E-01 a        55     2     2     3     5
 -1.1335095721257101E-02 a        56     2     3     3     1
  6.6745000301925073E-01 a        57     2     3     3     2
  1.4400343983490954E-01 a        58     2     3     3     3
  7.0589890502890815E-02 a        59     2     3     3     4
  3.4682901806831939E-01 a        60     2     3     3     5
 -8.0719398755938879E-02 a        61     2     4     3     1
  5.3062849747875818E-01 a        62     2     4     3     2
  7.7327638757044548E-01 a        63     2     4     3     3
 -2.5190175081117583E-01 a        64     2     4     3     4
  3.6332949735622361E-01 a        65     2     4     3     5
  3.0577329653255042E-01 a        66     2     5     3     1
  5.6297318354278869E-01 a        67     2     5     3     2
 -4.5064531995844448E-01 a        68     2     5     3     3
  3.3598618471336955E-01 a        69     2     5     3     4
 -8.7272844152994467E-02 a        70     2     5     3     5
  0.0000000000000000E+00 b        71     3     1
  0.0000000000000000E+00 b        72     3     2
  0.0000000000000000E+00 b        73     3     3
  0.0000000000000000E+00 b        74     3     4
  0.0000000000000000E+00 b        75     3     5
 -6.9741679821163416E-01 a        76     3     1     4     1
 -7.6504407078027725E-01 a        77     3     2     4     1
  5.0779714062809944E-01 a        78     3     3     4     1
 -1.5489875152707100E-01 a        79     3     4     4     1
  7.3106404813006520E-01 a        80     3     5     4     1
  0.0000000000000000E+00 b        81     4     1
