################################################################################
# Neural network connection values (weights and biases).
################################################################################
# Col  Name       Description
################################################################################
# 1    connection Neural network connection value.
# 2    t          Connection type (a = weight, b = bias).
# 3    index      Index enumerating weights.
# 4    l_s        Starting point layer (end point layer for biases).
# 5    n_s        Starting point neuron in starting layer (end point neuron for biases).
# 6    l_e        End point layer.
# 7    n_e        End point neuron in end layer.
################################################################################
#                      1 2         3     4     5     6     7
#             connection t     index   l_s   n_s   l_e   n_e
############################################################
  4.9092863605856119E-01 a         1     0     1     1     1
  5.5110283738092902E-01 a         2     0     1     1     2
 -8.5074011410947625E-01 a         3     0     1     1     3
 -5.4402748997753514E-01 a         4     0     1     1     4
 -1.9501338752754768E-01 a         5     0     1     1     5
 -6.1874992830895958E-01 a         6     0     2     1     1
 -7.6140061413673077E-01 a         7     0     2     1     2
  4.1932671031336882E-01 a         8     0     2     1     3
  8.4540278030297267E-01 a         9     0     2     1     4
  4.1843759549769910E-01 a        10     0     2     1     5
  0.0000000000000000E+00 b        11     1     1
  0.0000000000000000E+00 b        12     1     2
  0.0000000000000000E+00 b        13     1     3
  0.0000000000000000E+00 b        14     1     4
  0.0000000000000000E+00 b        15     1     5
 -4.9359917343423661E-02 a        16     1     1     2     1
  1.4407833695970851E-01 a        17     1     1     2     2
  2.4492419653135458E-01 a        18     1     1     2     3
  7.9327036303220178E-03 a        19     1     1     2     4
  5.6636248944925571E-01 a        20     1     1     2     5
  2.7857358889344841E-01 a        21     1     2     2     1
 -4.9010342360877049E-02 a        22     1     2     2     2
 -2.0597095520863248E-01 a        23     1     2     2     3
 -2.5849443564455271E-01 a        24     1     2     2     4
  2.4722198804758869E-01 a        25     1     2     2     5
 -2.8619376500557675E-01 a        26     1     3     2     1
 -3.2739001874450557E-02 a        27     1     3     2     2
 -4.9742887958531284E-01 a        28     1     3     2     3
  5.0206360935428407E-01 a        29     1     3     2     4
  7.3343247376890408E-01 a        30     1     3     2     5
 -4.6418099249970346E-01 a        31     1     4     2     1
  1.5807136876253217E-01 a        32     1     4     2     2
  4.3133034180984037E-01 a        33     1     4     2     3
  4.3673600402694851E-01 a        34     1     4     2     4
  1.5436172799325157E-01 a        35     1     4     2     5
  2.6421317256127230E-01 a        36     1     5     2     1
  6.1012829738733509E-01 a        37     1     5     2     2
 -4.7386575263417363E-01 a        38     1     5     2     3
  3.3960587996711217E-01 a        39     1     5     2     4
  4.5049235263374277E-01 a        40     1     5     2     5
  0.0000000000000000E+00 b        41     2     1
  0.0000000000000000E+00 b        42     2     2
  0.0000000000000000E+00 b        43     2     3
  0.0000000000000000E+00 b        44     2     4
  0.0000000000000000E+00 b        45     2     5
  5.4138794247769173E-01 a        46     2     1     3     1
  4.6277037936446769E-01 a        47     2     1     3     2
  4.6671120302032471E-01 a        48     2     1     3     3
  5.9943260497512141E-01 a        49     2     1     3     4
 -4.7899651299903151E-01 a        50     2     1     3     5
  4.8853709173165755E-01 a        51     2     2     3     1
 -4.2429708179250830E-01 a        52     2     2     3     2
 -9.0876928685193606E-02 a        53     2     2     3     3
  6.3224157645601309E-01 a        54     2     2     3     4
 -3.7787275668567433E-01 a        55     2     2     3     5
 -7.6867788070635379E-01 a        56     2     3     3     1
  4.1050277856166051E-01 a        57     2     3     3     2
  7.2580022143141765E-01 a        58     2     3     3     3
  1.2111979353449660E-01 a        59     2     3     3     4
  5.7304103271007223E-01 a        60     2     3     3     5
 -2.7710954062520088E-01 a        61     2     4     3     1
 -2.8531094135184099E-01 a        62     2     4     3     2
 -4.3322713663614187E-01 a        63     2     4     3     3
 -3.2940591444165268E-01 a        64     2     4     3     4
 -5.2815816166257401E-01 a        65     2     4     3     5
 -6.7154084023011240E-01 a        66     2     5     3     1
 -1.4007014217792046E-01 a        67     2     5     3     2
  5.2850256962217390E-01 a        68     2     5     3     3
 -3.0158623077838753E-01 a        69     2     5     3     4
  6.9931327403851518E-01 a        70     2     5     3     5
  0.0000000000000000E+00 b        71     3     1
  0.0000000000000000E+00 b        72     3     2
  0.0000000000000000E+00 b        73     3     3
  0.0000000000000000E+00 b        74     3     4
  0.0000000000000000E+00 b        75     3     5
 -1.7197940731421113E-01 a        76     3     1     4     1
  2.4091944564133883E-02 a        77     3     2     4     1
 -9.9949995335191488E-01 a        78     3     3     4     1
 -8.0760242789983749E-01 a        79     3     4     4     1
  1.7807330144569278E-01 a        80     3     5     4     1
  0.0000000000000000E+00 b        81     4     1
